<?xml version="1.0"?>
<opencv_storage>
<cascade>
  <stageType>BOOST</stageType>
  <featureType>HAAR</featureType>
  <height>24</height>
  <width>24</width>
  <stageParams>
    <boostType>GAB</boostType>
    <minHitRate>9.9500000476837158e-01</minHitRate>
    <maxFalseAlarm>5.0000000000000000e-01</maxFalseAlarm>
    <weightTrimRate>9.4999999999999996e-01</weightTrimRate>
    <maxDepth>1</maxDepth>
    <maxWeakCount>100</maxWeakCount></stageParams>
  <featureParams>
    <maxCatCount>0</maxCatCount>
    <featSize>1</featSize>
    <mode>BASIC</mode></featureParams>
  <stageNum>20</stageNum>
  <stages>
    <!-- stage 0 -->
    <_>
      <maxWeakCount>2</maxWeakCount>
      <stageThreshold>-1.1824402958154678e-01</stageThreshold>
      <weakClassifiers>
        <_>
          <internalNodes>
            0 -1 15 -1.6834344714879990e-02</internalNodes>
          <leafValues>
            7.5000000000000000e-01 -6.3636362552642822e-01</leafValues></_>
        <_>
          <internalNodes>
            0 -1 52 -4.1034007444977760e-03</internalNodes>
          <leafValues>
            -1. 5.1811963319778442e-01</leafValues></_></weakClassifiers></_>
    <!-- stage 1 -->
    <_>
      <maxWeakCount>2</maxWeakCount>
      <stageThreshold>-2.4812352657318115e-01</stageThreshold>
      <weakClassifiers>
        <_>
          <internalNodes>
            0 -1 49 5.2916852291673422e-04</internalNodes>
          <leafValues>
            5.9090906381607056e-01 -9.3750000000000000e-01</leafValues></_>
        <_>
          <internalNodes>
            0 -1 23 -2.3204544559121132e-03</internalNodes>
          <leafValues>
            6.8937647342681885e-01 -7.9959416389465332e-01</leafValues></_></weakClassifiers></_>
    <!-- stage 2 -->
    <_>
      <maxWeakCount>3</maxWeakCount>
      <stageThreshold>-8.3207350969314575e-01</stageThreshold>
      <weakClassifiers>
        <_>
          <internalNodes>
            0 -1 11 -2.3404935200233012e-04</internalNodes>
          <leafValues>
            -8.8235294818878174e-01 6.1904764175415039e-01</leafValues></_>
        <_>
          <internalNodes>
            0 -1 35 -9.9590495228767395e-03</internalNodes>
          <leafValues>
            9.0401154756546021e-01 -6.0440725088119507e-01</leafValues></_>
        <_>
          <internalNodes>
            0 -1 50 1.5158037422224879e-04</internalNodes>
          <leafValues>
            6.5468668937683105e-01 -8.4759765863418579e-01</leafValues></_></weakClassifiers></_>
    <!-- stage 3 -->
    <_>
      <maxWeakCount>4</maxWeakCount>
      <stageThreshold>-1.7773519456386566e-01</stageThreshold>
      <weakClassifiers>
        <_>
          <internalNodes>
            0 -1 3 -5.2413502708077431e-03</internalNodes>
          <leafValues>
            -7.2222220897674561e-01 5.5000001192092896e-01</leafValues></_>
        <_>
          <internalNodes>
            0 -1 10 -1.5025107131805271e-04</internalNodes>
          <leafValues>
            -7.7368187904357910e-01 5.1731646060943604e-01</leafValues></_>
        <_>
          <internalNodes>
            0 -1 28 1.2456220574676991e-03</internalNodes>
          <leafValues>
            -5.9860485792160034e-01 7.2808611392974854e-01</leafValues></_>
        <_>
          <internalNodes>
            0 -1 2 -1.5879799320828170e-04</internalNodes>
          <leafValues>
            -6.8213945627212524e-01 6.5744233131408691e-01</leafValues></_></weakClassifiers></_>
    <!-- stage 4 -->
    <_>
      <maxWeakCount>2</maxWeakCount>
      <stageThreshold>-6.6834479570388794e-02</stageThreshold>
      <weakClassifiers>
        <_>
          <internalNodes>
            0 -1 47 -5.0046775868395343e-05</internalNodes>
          <leafValues>
            -7.6470589637756348e-01 5.2380955219268799e-01</leafValues></_>
        <_>
          <internalNodes>
            0 -1 32 -1.3500922918319702e-01</internalNodes>
          <leafValues>
            9.1038870811462402e-01 -5.9064400196075439e-01</leafValues></_></weakClassifiers></_>
    <!-- stage 5 -->
    <_>
      <maxWeakCount>1</maxWeakCount>
      <stageThreshold>4.3999999761581421e-01</stageThreshold>
      <weakClassifiers>
        <_>
          <internalNodes>
            0 -1 51 -8.4451850852929056e-05</internalNodes>
          <leafValues>
            -1. 4.3999999761581421e-01</leafValues></_></weakClassifiers></_>
    <!-- stage 6 -->
    <_>
      <maxWeakCount>2</maxWeakCount>
      <stageThreshold>1.5107972919940948e-01</stageThreshold>
      <weakClassifiers>
        <_>
          <internalNodes>
            0 -1 38 -8.8575368863530457e-05</internalNodes>
          <leafValues>
            8.1818181276321411e-01 -7.2093021869659424e-01</leafValues></_>
        <_>
          <internalNodes>
            0 -1 31 -4.5963533921167254e-04</internalNodes>
          <leafValues>
            9.5413953065872192e-01 -6.6710209846496582e-01</leafValues></_></weakClassifiers></_>
    <!-- stage 7 -->
    <_>
      <maxWeakCount>4</maxWeakCount>
      <stageThreshold>-1.5937869250774384e-01</stageThreshold>
      <weakClassifiers>
        <_>
          <internalNodes>
            0 -1 37 -1.2176622403785586e-03</internalNodes>
          <leafValues>
            8.3333331346511841e-01 -4.6153846383094788e-01</leafValues></_>
        <_>
          <internalNodes>
            0 -1 36 -5.0453578296583146e-05</internalNodes>
          <leafValues>
            6.1813288927078247e-01 -6.2925279140472412e-01</leafValues></_>
        <_>
          <internalNodes>
            0 -1 4 2.0886972197331488e-04</internalNodes>
          <leafValues>
            4.9945345520973206e-01 -8.0054211616516113e-01</leafValues></_>
        <_>
          <internalNodes>
            0 -1 39 -3.4704655263340101e-05</internalNodes>
          <leafValues>
            5.2104449272155762e-01 -8.1030279397964478e-01</leafValues></_></weakClassifiers></_>
    <!-- stage 8 -->
    <_>
      <maxWeakCount>4</maxWeakCount>
      <stageThreshold>-9.7099649906158447e-01</stageThreshold>
      <weakClassifiers>
        <_>
          <internalNodes>
            0 -1 41 -4.4821185292676091e-04</internalNodes>
          <leafValues>
            7.9310345649719238e-01 -5.7446807622909546e-01</leafValues></_>
        <_>
          <internalNodes>
            0 -1 43 7.9300443758256733e-05</internalNodes>
          <leafValues>
            -5.2748459577560425e-01 7.7221024036407471e-01</leafValues></_>
        <_>
          <internalNodes>
            0 -1 17 -4.2888298630714417e-03</internalNodes>
          <leafValues>
            -8.0049049854278564e-01 5.4528844356536865e-01</leafValues></_>
        <_>
          <internalNodes>
            0 -1 13 4.1931754350662231e-01</internalNodes>
          <leafValues>
            -4.3612489104270935e-01 1.</leafValues></_></weakClassifiers></_>
    <!-- stage 9 -->
    <_>
      <maxWeakCount>1</maxWeakCount>
      <stageThreshold>2.8571429848670959e-01</stageThreshold>
      <weakClassifiers>
        <_>
          <internalNodes>
            0 -1 7 1.3505262322723866e-03</internalNodes>
          <leafValues>
            2.8571429848670959e-01 -1.</leafValues></_></weakClassifiers></_>
    <!-- stage 10 -->
    <_>
      <maxWeakCount>3</maxWeakCount>
      <stageThreshold>-9.9522136151790619e-02</stageThreshold>
      <weakClassifiers>
        <_>
          <internalNodes>
            0 -1 1 -4.9727282021194696e-04</internalNodes>
          <leafValues>
            -8.3999997377395630e-01 3.3333334326744080e-01</leafValues></_>
        <_>
          <internalNodes>
            0 -1 9 -6.7434106022119522e-03</internalNodes>
          <leafValues>
            -9.3450790643692017e-01 3.8727474212646484e-01</leafValues></_>
        <_>
          <internalNodes>
            0 -1 16 -6.8697263486683369e-05</internalNodes>
          <leafValues>
            -7.3979222774505615e-01 5.0165247917175293e-01</leafValues></_></weakClassifiers></_>
    <!-- stage 11 -->
    <_>
      <maxWeakCount>3</maxWeakCount>
      <stageThreshold>-2.7637746930122375e-01</stageThreshold>
      <weakClassifiers>
        <_>
          <internalNodes>
            0 -1 27 4.4732280075550079e-03</internalNodes>
          <leafValues>
            -4.6938776969909668e-01 7.0370370149612427e-01</leafValues></_>
        <_>
          <internalNodes>
            0 -1 46 -3.5819259937852621e-03</internalNodes>
          <leafValues>
            8.3100962638854980e-01 -4.1627028584480286e-01</leafValues></_>
        <_>
          <internalNodes>
            0 -1 14 -5.0658509135246277e-03</internalNodes>
          <leafValues>
            7.3051428794860840e-01 -5.6381088495254517e-01</leafValues></_></weakClassifiers></_>
    <!-- stage 12 -->
    <_>
      <maxWeakCount>3</maxWeakCount>
      <stageThreshold>-2.1323180198669434e-01</stageThreshold>
      <weakClassifiers>
        <_>
          <internalNodes>
            0 -1 33 3.4703570418059826e-03</internalNodes>
          <leafValues>
            -3.6842104792594910e-01 8.9473682641983032e-01</leafValues></_>
        <_>
          <internalNodes>
            0 -1 20 -2.4179949832614511e-05</internalNodes>
          <leafValues>
            6.4639073610305786e-01 -5.1706498861312866e-01</leafValues></_>
        <_>
          <internalNodes>
            0 -1 26 1.6689488256815821e-04</internalNodes>
          <leafValues>
            -4.9120149016380310e-01 8.5701769590377808e-01</leafValues></_></weakClassifiers></_>
    <!-- stage 13 -->
    <_>
      <maxWeakCount>4</maxWeakCount>
      <stageThreshold>-1.8271870911121368e-01</stageThreshold>
      <weakClassifiers>
        <_>
          <internalNodes>
            0 -1 24 -1.1025884305126965e-04</internalNodes>
          <leafValues>
            6.4285713434219360e-01 -4.5833334326744080e-01</leafValues></_>
        <_>
          <internalNodes>
            0 -1 6 -1.7819195636548102e-04</internalNodes>
          <leafValues>
            -6.8810850381851196e-01 5.2524900436401367e-01</leafValues></_>
        <_>
          <internalNodes>
            0 -1 19 1.3374337553977966e-01</internalNodes>
          <leafValues>
            -5.2908825874328613e-01 6.5395510196685791e-01</leafValues></_>
        <_>
          <internalNodes>
            0 -1 0 -4.3404408643255010e-05</internalNodes>
          <leafValues>
            -1. 3.9162090420722961e-01</leafValues></_></weakClassifiers></_>
    <!-- stage 14 -->
    <_>
      <maxWeakCount>3</maxWeakCount>
      <stageThreshold>2.7541600167751312e-02</stageThreshold>
      <weakClassifiers>
        <_>
          <internalNodes>
            0 -1 53 -7.6790247112512589e-04</internalNodes>
          <leafValues>
            -6.9696968793869019e-01 4.4186046719551086e-01</leafValues></_>
        <_>
          <internalNodes>
            0 -1 21 4.3918975279666483e-05</internalNodes>
          <leafValues>
            3.5367700457572937e-01 -8.7274080514907837e-01</leafValues></_>
        <_>
          <internalNodes>
            0 -1 18 2.9271733947098255e-03</internalNodes>
          <leafValues>
            4.7256937623023987e-01 -7.6799589395523071e-01</leafValues></_></weakClassifiers></_>
    <!-- stage 15 -->
    <_>
      <maxWeakCount>3</maxWeakCount>
      <stageThreshold>-7.2191739082336426e-01</stageThreshold>
      <weakClassifiers>
        <_>
          <internalNodes>
            0 -1 45 -1.4623226888943464e-04</internalNodes>
          <leafValues>
            6.1290323734283447e-01 -5.1111114025115967e-01</leafValues></_>
        <_>
          <internalNodes>
            0 -1 48 1.3858561869710684e-03</internalNodes>
          <leafValues>
            4.7236058115959167e-01 -8.5390967130661011e-01</leafValues></_>
        <_>
          <internalNodes>
            0 -1 5 1.4194544746715110e-05</internalNodes>
          <leafValues>
            6.1063957214355469e-01 -6.8316686153411865e-01</leafValues></_></weakClassifiers></_>
    <!-- stage 16 -->
    <_>
      <maxWeakCount>2</maxWeakCount>
      <stageThreshold>-9.1516803950071335e-03</stageThreshold>
      <weakClassifiers>
        <_>
          <internalNodes>
            0 -1 12 -1.0767057538032532e-03</internalNodes>
          <leafValues>
            5.6250000000000000e-01 -5.0000000000000000e-01</leafValues></_>
        <_>
          <internalNodes>
            0 -1 30 6.5274843946099281e-03</internalNodes>
          <leafValues>
            -5.7165169715881348e-01 5.5955410003662109e-01</leafValues></_></weakClassifiers></_>
    <!-- stage 17 -->
    <_>
      <maxWeakCount>3</maxWeakCount>
      <stageThreshold>-3.8419887423515320e-01</stageThreshold>
      <weakClassifiers>
        <_>
          <internalNodes>
            0 -1 22 -5.4610171355307102e-04</internalNodes>
          <leafValues>
            4.4999998807907104e-01 -6.1111110448837280e-01</leafValues></_>
        <_>
          <internalNodes>
            0 -1 42 -1.8598372116684914e-02</internalNodes>
          <leafValues>
            8.9030915498733521e-01 -4.3113747239112854e-01</leafValues></_>
        <_>
          <internalNodes>
            0 -1 34 -2.9103676788508892e-03</internalNodes>
          <leafValues>
            7.9120630025863647e-01 -4.0306138992309570e-01</leafValues></_></weakClassifiers></_>
    <!-- stage 18 -->
    <_>
      <maxWeakCount>2</maxWeakCount>
      <stageThreshold>-1.3449178636074066e-01</stageThreshold>
      <weakClassifiers>
        <_>
          <internalNodes>
            0 -1 44 4.8859335947781801e-04</internalNodes>
          <leafValues>
            3.6000001430511475e-01 -8.4615385532379150e-01</leafValues></_>
        <_>
          <internalNodes>
            0 -1 25 -7.4842008762061596e-03</internalNodes>
          <leafValues>
            7.7322036027908325e-01 -4.9449178576469421e-01</leafValues></_></weakClassifiers></_>
    <!-- stage 19 -->
    <_>
      <maxWeakCount>3</maxWeakCount>
      <stageThreshold>-3.7273019552230835e-01</stageThreshold>
      <weakClassifiers>
        <_>
          <internalNodes>
            0 -1 29 -3.0082655139267445e-03</internalNodes>
          <leafValues>
            8.0000001192092896e-01 -3.5714286565780640e-01</leafValues></_>
        <_>
          <internalNodes>
            0 -1 8 1.0830054525285959e-03</internalNodes>
          <leafValues>
            -5.9082818031311035e-01 5.6648385524749756e-01</leafValues></_>
        <_>
          <internalNodes>
            0 -1 40 -2.8684316202998161e-04</internalNodes>
          <leafValues>
            7.9885506629943848e-01 -5.8190202713012695e-01</leafValues></_></weakClassifiers></_></stages>
  <features>
    <_>
      <rects>
        <_>
          0 0 2 2 -1.</_>
        <_>
          0 1 2 1 2.</_></rects>
      <tilted>0</tilted></_>
    <_>
      <rects>
        <_>
          0 0 10 2 -1.</_>
        <_>
          5 0 5 2 2.</_></rects>
      <tilted>0</tilted></_>
    <_>
      <rects>
        <_>
          0 1 4 1 -1.</_>
        <_>
          2 1 2 1 2.</_></rects>
      <tilted>0</tilted></_>
    <_>
      <rects>
        <_>
          0 1 20 3 -1.</_>
        <_>
          10 1 10 3 2.</_></rects>
      <tilted>0</tilted></_>
    <_>
      <rects>
        <_>
          0 5 2 3 -1.</_>
        <_>
          0 6 2 1 3.</_></rects>
      <tilted>0</tilted></_>
    <_>
      <rects>
        <_>
          0 7 1 14 -1.</_>
        <_>
          0 14 1 7 2.</_></rects>
      <tilted>0</tilted></_>
    <_>
      <rects>
        <_>
          0 10 6 7 -1.</_>
        <_>
          2 10 2 7 3.</_></rects>
      <tilted>0</tilted></_>
    <_>
      <rects>
        <_>
          0 11 2 12 -1.</_>
        <_>
          0 11 1 6 2.</_>
        <_>
          1 17 1 6 2.</_></rects>
      <tilted>0</tilted></_>
    <_>
      <rects>
        <_>
          0 20 20 1 -1.</_>
        <_>
          10 20 10 1 2.</_></rects>
      <tilted>0</tilted></_>
    <_>
      <rects>
        <_>
          1 6 6 5 -1.</_>
        <_>
          3 6 2 5 3.</_></rects>
      <tilted>0</tilted></_>
    <_>
      <rects>
        <_>
          1 6 4 9 -1.</_>
        <_>
          3 6 2 9 2.</_></rects>
      <tilted>0</tilted></_>
    <_>
      <rects>
        <_>
          1 9 2 5 -1.</_>
        <_>
          2 9 1 5 2.</_></rects>
      <tilted>0</tilted></_>
    <_>
      <rects>
        <_>
          1 20 15 2 -1.</_>
        <_>
          1 21 15 1 2.</_></rects>
      <tilted>0</tilted></_>
    <_>
      <rects>
        <_>
          2 0 21 20 -1.</_>
        <_>
          9 0 7 20 3.</_></rects>
      <tilted>0</tilted></_>
    <_>
      <rects>
        <_>
          2 0 9 6 -1.</_>
        <_>
          2 2 9 2 3.</_></rects>
      <tilted>0</tilted></_>
    <_>
      <rects>
        <_>
          2 11 13 12 -1.</_>
        <_>
          2 17 13 6 2.</_></rects>
      <tilted>0</tilted></_>
    <_>
      <rects>
        <_>
          2 13 4 1 -1.</_>
        <_>
          4 13 2 1 2.</_></rects>
      <tilted>0</tilted></_>
    <_>
      <rects>
        <_>
          2 19 18 2 -1.</_>
        <_>
          2 19 9 1 2.</_>
        <_>
          11 20 9 1 2.</_></rects>
      <tilted>0</tilted></_>
    <_>
      <rects>
        <_>
          2 23 22 1 -1.</_>
        <_>
          13 23 11 1 2.</_></rects>
      <tilted>0</tilted></_>
    <_>
      <rects>
        <_>
          3 4 12 20 -1.</_>
        <_>
          9 4 6 20 2.</_></rects>
      <tilted>0</tilted></_>
    <_>
      <rects>
        <_>
          3 5 2 6 -1.</_>
        <_>
          3 7 2 2 3.</_></rects>
      <tilted>0</tilted></_>
    <_>
      <rects>
        <_>
          4 22 2 2 -1.</_>
        <_>
          4 23 2 1 2.</_></rects>
      <tilted>0</tilted></_>
    <_>
      <rects>
        <_>
          5 6 6 6 -1.</_>
        <_>
          5 8 6 2 3.</_></rects>
      <tilted>0</tilted></_>
    <_>
      <rects>
        <_>
          6 18 14 6 -1.</_>
        <_>
          6 21 14 3 2.</_></rects>
      <tilted>0</tilted></_>
    <_>
      <rects>
        <_>
          7 2 1 6 -1.</_>
        <_>
          7 4 1 2 3.</_></rects>
      <tilted>0</tilted></_>
    <_>
      <rects>
        <_>
          7 12 8 10 -1.</_>
        <_>
          7 12 4 5 2.</_>
        <_>
          11 17 4 5 2.</_></rects>
      <tilted>0</tilted></_>
    <_>
      <rects>
        <_>
          8 1 2 2 -1.</_>
        <_>
          8 1 1 1 2.</_>
        <_>
          9 2 1 1 2.</_></rects>
      <tilted>0</tilted></_>
    <_>
      <rects>
        <_>
          8 12 4 8 -1.</_>
        <_>
          10 12 2 8 2.</_></rects>
      <tilted>0</tilted></_>
    <_>
      <rects>
        <_>
          9 2 1 6 -1.</_>
        <_>
          9 5 1 3 2.</_></rects>
      <tilted>0</tilted></_>
    <_>
      <rects>
        <_>
          9 5 3 12 -1.</_>
        <_>
          10 5 1 12 3.</_></rects>
      <tilted>0</tilted></_>
    <_>
      <rects>
        <_>
          9 8 10 12 -1.</_>
        <_>
          9 8 5 6 2.</_>
        <_>
          14 14 5 6 2.</_></rects>
      <tilted>0</tilted></_>
    <_>
      <rects>
        <_>
          9 9 4 6 -1.</_>
        <_>
          9 9 2 3 2.</_>
        <_>
          11 12 2 3 2.</_></rects>
      <tilted>0</tilted></_>
    <_>
      <rects>
        <_>
          10 2 14 16 -1.</_>
        <_>
          17 2 7 16 2.</_></rects>
      <tilted>0</tilted></_>
    <_>
      <rects>
        <_>
          10 9 3 8 -1.</_>
        <_>
          11 9 1 8 3.</_></rects>
      <tilted>0</tilted></_>
    <_>
      <rects>
        <_>
          11 2 13 6 -1.</_>
        <_>
          11 4 13 2 3.</_></rects>
      <tilted>0</tilted></_>
    <_>
      <rects>
        <_>
          11 11 7 10 -1.</_>
        <_>
          11 16 7 5 2.</_></rects>
      <tilted>0</tilted></_>
    <_>
      <rects>
        <_>
          12 6 8 3 -1.</_>
        <_>
          12 7 8 1 3.</_></rects>
      <tilted>0</tilted></_>
    <_>
      <rects>
        <_>
          12 9 4 1 -1.</_>
        <_>
          14 9 2 1 2.</_></rects>
      <tilted>0</tilted></_>
    <_>
      <rects>
        <_>
          12 11 12 2 -1.</_>
        <_>
          18 11 6 2 2.</_></rects>
      <tilted>0</tilted></_>
    <_>
      <rects>
        <_>
          12 13 1 10 -1.</_>
        <_>
          12 18 1 5 2.</_></rects>
      <tilted>0</tilted></_>
    <_>
      <rects>
        <_>
          12 14 3 2 -1.</_>
        <_>
          13 14 1 2 3.</_></rects>
      <tilted>0</tilted></_>
    <_>
      <rects>
        <_>
          13 4 1 6 -1.</_>
        <_>
          13 6 1 2 3.</_></rects>
      <tilted>0</tilted></_>
    <_>
      <rects>
        <_>
          13 9 5 10 -1.</_>
        <_>
          13 14 5 5 2.</_></rects>
      <tilted>0</tilted></_>
    <_>
      <rects>
        <_>
          14 0 2 4 -1.</_>
        <_>
          14 2 2 2 2.</_></rects>
      <tilted>0</tilted></_>
    <_>
      <rects>
        <_>
          14 8 5 3 -1.</_>
        <_>
          14 9 5 1 3.</_></rects>
      <tilted>0</tilted></_>
    <_>
      <rects>
        <_>
          14 18 4 2 -1.</_>
        <_>
          14 19 4 1 2.</_></rects>
      <tilted>0</tilted></_>
    <_>
      <rects>
        <_>
          16 6 5 6 -1.</_>
        <_>
          16 8 5 2 3.</_></rects>
      <tilted>0</tilted></_>
    <_>
      <rects>
        <_>
          18 5 4 2 -1.</_>
        <_>
          18 6 4 1 2.</_></rects>
      <tilted>0</tilted></_>
    <_>
      <rects>
        <_>
          21 4 1 6 -1.</_>
        <_>
          21 7 1 3 2.</_></rects>
      <tilted>0</tilted></_>
    <_>
      <rects>
        <_>
          21 13 2 7 -1.</_>
        <_>
          22 13 1 7 2.</_></rects>
      <tilted>0</tilted></_>
    <_>
      <rects>
        <_>
          22 15 2 4 -1.</_>
        <_>
          22 15 1 2 2.</_>
        <_>
          23 17 1 2 2.</_></rects>
      <tilted>0</tilted></_>
    <_>
      <rects>
        <_>
          23 1 1 2 -1.</_>
        <_>
          23 2 1 1 2.</_></rects>
      <tilted>0</tilted></_>
    <_>
      <rects>
        <_>
          23 6 1 18 -1.</_>
        <_>
          23 12 1 6 3.</_></rects>
      <tilted>0</tilted></_>
    <_>
      <rects>
        <_>
          23 13 1 8 -1.</_>
        <_>
          23 17 1 4 2.</_></rects>
      <tilted>0</tilted></_></features></cascade>
</opencv_storage>
